digraph Tree {
node [shape=box] ;
0 [label="X[1] <= 0.5\ngini = 0.473\nsamples = 891\nvalue = [549, 342]"] ;
1 [label="X[0] <= 2.5\ngini = 0.383\nsamples = 314\nvalue = [81, 233]"] ;
0 -> 1 [labeldistance=2.5, labelangle=45, headlabel="True"] ;
2 [label="X[5] <= 28.856\ngini = 0.1\nsamples = 170\nvalue = [9, 161]"] ;
1 -> 2 ;
3 [label="X[5] <= 28.231\ngini = 0.18\nsamples = 70\nvalue = [7, 63]"] ;
2 -> 3 ;
4 [label="X[2] <= 56.0\ngini = 0.159\nsamples = 69\nvalue = [6, 63]"] ;
3 -> 4 ;
5 [label="X[3] <= 0.5\ngini = 0.138\nsamples = 67\nvalue = [5, 62]"] ;
4 -> 5 ;
6 [label="X[5] <= 13.25\ngini = 0.085\nsamples = 45\nvalue = [2, 43]"] ;
5 -> 6 ;
7 [label="X[5] <= 12.825\ngini = 0.147\nsamples = 25\nvalue = [2, 23]"] ;
6 -> 7 ;
8 [label="gini = 0.0\nsamples = 11\nvalue = [0, 11]"] ;
7 -> 8 ;
9 [label="X[2] <= 26.0\ngini = 0.245\nsamples = 14\nvalue = [2, 12]"] ;
7 -> 9 ;
10 [label="X[4] <= 1.0\ngini = 0.444\nsamples = 3\nvalue = [1, 2]"] ;
9 -> 10 ;
11 [label="X[6] <= 144.0\ngini = 0.5\nsamples = 2\nvalue = [1, 1]"] ;
10 -> 11 ;
12 [label="gini = 0.0\nsamples = 1\nvalue = [0, 1]"] ;
11 -> 12 ;
13 [label="gini = 0.0\nsamples = 1\nvalue = [1, 0]"] ;
11 -> 13 ;
14 [label="gini = 0.0\nsamples = 1\nvalue = [0, 1]"] ;
10 -> 14 ;
15 [label="X[2] <= 37.0\ngini = 0.165\nsamples = 11\nvalue = [1, 10]"] ;
9 -> 15 ;
16 [label="gini = 0.0\nsamples = 8\nvalue = [0, 8]"] ;
15 -> 16 ;
17 [label="X[2] <= 39.0\ngini = 0.444\nsamples = 3\nvalue = [1, 2]"] ;
15 -> 17 ;
18 [label="gini = 0.0\nsamples = 1\nvalue = [1, 0]"] ;
17 -> 18 ;
19 [label="gini = 0.0\nsamples = 2\nvalue = [0, 2]"] ;
17 -> 19 ;
20 [label="gini = 0.0\nsamples = 20\nvalue = [0, 20]"] ;
6 -> 20 ;
21 [label="X[2] <= 25.0\ngini = 0.236\nsamples = 22\nvalue = [3, 19]"] ;
5 -> 21 ;
22 [label="gini = 0.0\nsamples = 7\nvalue = [0, 7]"] ;
21 -> 22 ;
23 [label="X[2] <= 27.5\ngini = 0.32\nsamples = 15\nvalue = [3, 12]"] ;
21 -> 23 ;
24 [label="X[7] <= 1.5\ngini = 0.444\nsamples = 3\nvalue = [2, 1]"] ;
23 -> 24 ;
25 [label="gini = 0.0\nsamples = 1\nvalue = [0, 1]"] ;
24 -> 25 ;
26 [label="gini = 0.0\nsamples = 2\nvalue = [2, 0]"] ;
24 -> 26 ;
27 [label="X[2] <= 43.0\ngini = 0.153\nsamples = 12\nvalue = [1, 11]"] ;
23 -> 27 ;
28 [label="gini = 0.0\nsamples = 9\nvalue = [0, 9]"] ;
27 -> 28 ;
29 [label="X[4] <= 0.5\ngini = 0.444\nsamples = 3\nvalue = [1, 2]"] ;
27 -> 29 ;
30 [label="gini = 0.0\nsamples = 1\nvalue = [1, 0]"] ;
29 -> 30 ;
31 [label="gini = 0.0\nsamples = 2\nvalue = [0, 2]"] ;
29 -> 31 ;
32 [label="X[0] <= 1.5\ngini = 0.5\nsamples = 2\nvalue = [1, 1]"] ;
4 -> 32 ;
33 [label="gini = 0.0\nsamples = 1\nvalue = [0, 1]"] ;
32 -> 33 ;
34 [label="gini = 0.0\nsamples = 1\nvalue = [1, 0]"] ;
32 -> 34 ;
35 [label="gini = 0.0\nsamples = 1\nvalue = [1, 0]"] ;
3 -> 35 ;
36 [label="X[4] <= 1.5\ngini = 0.039\nsamples = 100\nvalue = [2, 98]"] ;
2 -> 36 ;
37 [label="gini = 0.0\nsamples = 84\nvalue = [0, 84]"] ;
36 -> 37 ;
38 [label="X[2] <= 2.5\ngini = 0.219\nsamples = 16\nvalue = [2, 14]"] ;
36 -> 38 ;
39 [label="gini = 0.0\nsamples = 1\nvalue = [1, 0]"] ;
38 -> 39 ;
40 [label="X[2] <= 24.5\ngini = 0.124\nsamples = 15\nvalue = [1, 14]"] ;
38 -> 40 ;
41 [label="gini = 0.0\nsamples = 10\nvalue = [0, 10]"] ;
40 -> 41 ;
42 [label="X[2] <= 28.0\ngini = 0.32\nsamples = 5\nvalue = [1, 4]"] ;
40 -> 42 ;
43 [label="gini = 0.0\nsamples = 1\nvalue = [1, 0]"] ;
42 -> 43 ;
44 [label="gini = 0.0\nsamples = 4\nvalue = [0, 4]"] ;
42 -> 44 ;
45 [label="X[5] <= 23.35\ngini = 0.5\nsamples = 144\nvalue = [72, 72]"] ;
1 -> 45 ;
46 [label="X[2] <= 16.5\ngini = 0.484\nsamples = 117\nvalue = [48, 69]"] ;
45 -> 46 ;
47 [label="X[3] <= 2.5\ngini = 0.404\nsamples = 57\nvalue = [16, 41]"] ;
46 -> 47 ;
48 [label="X[5] <= 15.373\ngini = 0.38\nsamples = 55\nvalue = [14, 41]"] ;
47 -> 48 ;
49 [label="X[5] <= 13.935\ngini = 0.45\nsamples = 41\nvalue = [14, 27]"] ;
48 -> 49 ;
50 [label="X[7] <= 2.5\ngini = 0.382\nsamples = 35\nvalue = [9, 26]"] ;
49 -> 50 ;
51 [label="X[4] <= 1.5\ngini = 0.252\nsamples = 27\nvalue = [4, 23]"] ;
50 -> 51 ;
52 [label="X[5] <= 8.083\ngini = 0.204\nsamples = 26\nvalue = [3, 23]"] ;
51 -> 52 ;
53 [label="X[5] <= 7.681\ngini = 0.159\nsamples = 23\nvalue = [2, 21]"] ;
52 -> 53 ;
54 [label="X[7] <= 1.0\ngini = 0.32\nsamples = 5\nvalue = [1, 4]"] ;
53 -> 54 ;
55 [label="gini = 0.0\nsamples = 4\nvalue = [0, 4]"] ;
54 -> 55 ;
56 [label="gini = 0.0\nsamples = 1\nvalue = [1, 0]"] ;
54 -> 56 ;
57 [label="X[5] <= 7.769\ngini = 0.105\nsamples = 18\nvalue = [1, 17]"] ;
53 -> 57 ;
58 [label="X[5] <= 7.744\ngini = 0.153\nsamples = 12\nvalue = [1, 11]"] ;
57 -> 58 ;
59 [label="gini = 0.0\nsamples = 3\nvalue = [0, 3]"] ;
58 -> 59 ;
60 [label="X[2] <= 3.0\ngini = 0.198\nsamples = 9\nvalue = [1, 8]"] ;
58 -> 60 ;
61 [label="gini = 0.219\nsamples = 8\nvalue = [1, 7]"] ;
60 -> 61 ;
62 [label="gini = 0.0\nsamples = 1\nvalue = [0, 1]"] ;
60 -> 62 ;
63 [label="gini = 0.0\nsamples = 6\nvalue = [0, 6]"] ;
57 -> 63 ;
64 [label="X[7] <= 1.0\ngini = 0.444\nsamples = 3\nvalue = [1, 2]"] ;
52 -> 64 ;
65 [label="gini = 0.0\nsamples = 2\nvalue = [0, 2]"] ;
64 -> 65 ;
66 [label="gini = 0.0\nsamples = 1\nvalue = [1, 0]"] ;
64 -> 66 ;
67 [label="gini = 0.0\nsamples = 1\nvalue = [1, 0]"] ;
51 -> 67 ;
68 [label="X[5] <= 10.798\ngini = 0.469\nsamples = 8\nvalue = [5, 3]"] ;
50 -> 68 ;
69 [label="gini = 0.0\nsamples = 5\nvalue = [5, 0]"] ;
68 -> 69 ;
70 [label="gini = 0.0\nsamples = 3\nvalue = [0, 3]"] ;
68 -> 70 ;
71 [label="X[2] <= 14.75\ngini = 0.278\nsamples = 6\nvalue = [5, 1]"] ;
49 -> 71 ;
72 [label="gini = 0.0\nsamples = 5\nvalue = [5, 0]"] ;
71 -> 72 ;
73 [label="gini = 0.0\nsamples = 1\nvalue = [0, 1]"] ;
71 -> 73 ;
74 [label="gini = 0.0\nsamples = 14\nvalue = [0, 14]"] ;
48 -> 74 ;
75 [label="gini = 0.0\nsamples = 2\nvalue = [2, 0]"] ;
47 -> 75 ;
76 [label="X[2] <= 36.5\ngini = 0.498\nsamples = 60\nvalue = [32, 28]"] ;
46 -> 76 ;
77 [label="X[2] <= 32.5\ngini = 0.5\nsamples = 53\nvalue = [26, 27]"] ;
76 -> 77 ;
78 [label="X[4] <= 1.5\ngini = 0.499\nsamples = 50\nvalue = [26, 24]"] ;
77 -> 78 ;
79 [label="X[5] <= 7.887\ngini = 0.491\nsamples = 44\nvalue = [25, 19]"] ;
78 -> 79 ;
80 [label="X[2] <= 28.25\ngini = 0.469\nsamples = 16\nvalue = [6, 10]"] ;
79 -> 80 ;
81 [label="X[2] <= 18.5\ngini = 0.408\nsamples = 14\nvalue = [4, 10]"] ;
80 -> 81 ;
82 [label="X[7] <= 2.5\ngini = 0.444\nsamples = 3\nvalue = [2, 1]"] ;
81 -> 82 ;
83 [label="gini = 0.0\nsamples = 1\nvalue = [1, 0]"] ;
82 -> 83 ;
84 [label="X[5] <= 7.635\ngini = 0.5\nsamples = 2\nvalue = [1, 1]"] ;
82 -> 84 ;
85 [label="gini = 0.0\nsamples = 1\nvalue = [0, 1]"] ;
84 -> 85 ;
86 [label="gini = 0.0\nsamples = 1\nvalue = [1, 0]"] ;
84 -> 86 ;
87 [label="X[2] <= 24.0\ngini = 0.298\nsamples = 11\nvalue = [2, 9]"] ;
81 -> 87 ;
88 [label="X[7] <= 2.5\ngini = 0.198\nsamples = 9\nvalue = [1, 8]"] ;
87 -> 88 ;
89 [label="X[5] <= 7.815\ngini = 0.444\nsamples = 3\nvalue = [1, 2]"] ;
88 -> 89 ;
90 [label="X[2] <= 21.5\ngini = 0.5\nsamples = 2\nvalue = [1, 1]"] ;
89 -> 90 ;
91 [label="gini = 0.0\nsamples = 1\nvalue = [1, 0]"] ;
90 -> 91 ;
92 [label="gini = 0.0\nsamples = 1\nvalue = [0, 1]"] ;
90 -> 92 ;
93 [label="gini = 0.0\nsamples = 1\nvalue = [0, 1]"] ;
89 -> 93 ;
94 [label="gini = 0.0\nsamples = 6\nvalue = [0, 6]"] ;
88 -> 94 ;
95 [label="X[5] <= 7.815\ngini = 0.5\nsamples = 2\nvalue = [1, 1]"] ;
87 -> 95 ;
96 [label="gini = 0.0\nsamples = 1\nvalue = [1, 0]"] ;
95 -> 96 ;
97 [label="gini = 0.0\nsamples = 1\nvalue = [0, 1]"] ;
95 -> 97 ;
98 [label="gini = 0.0\nsamples = 2\nvalue = [2, 0]"] ;
80 -> 98 ;
99 [label="X[2] <= 23.5\ngini = 0.436\nsamples = 28\nvalue = [19, 9]"] ;
79 -> 99 ;
100 [label="X[2] <= 19.0\ngini = 0.278\nsamples = 12\nvalue = [10, 2]"] ;
99 -> 100 ;
101 [label="X[5] <= 12.148\ngini = 0.444\nsamples = 6\nvalue = [4, 2]"] ;
100 -> 101 ;
102 [label="gini = 0.0\nsamples = 2\nvalue = [0, 2]"] ;
101 -> 102 ;
103 [label="gini = 0.0\nsamples = 4\nvalue = [4, 0]"] ;
101 -> 103 ;
104 [label="gini = 0.0\nsamples = 6\nvalue = [6, 0]"] ;
100 -> 104 ;
105 [label="X[3] <= 0.5\ngini = 0.492\nsamples = 16\nvalue = [9, 7]"] ;
99 -> 105 ;
106 [label="X[5] <= 7.91\ngini = 0.469\nsamples = 8\nvalue = [3, 5]"] ;
105 -> 106 ;
107 [label="gini = 0.0\nsamples = 1\nvalue = [1, 0]"] ;
106 -> 107 ;
108 [label="X[2] <= 25.0\ngini = 0.408\nsamples = 7\nvalue = [2, 5]"] ;
106 -> 108 ;
109 [label="gini = 0.0\nsamples = 1\nvalue = [1, 0]"] ;
108 -> 109 ;
110 [label="X[2] <= 28.5\ngini = 0.278\nsamples = 6\nvalue = [1, 5]"] ;
108 -> 110 ;
111 [label="gini = 0.0\nsamples = 3\nvalue = [0, 3]"] ;
110 -> 111 ;
112 [label="X[5] <= 8.673\ngini = 0.444\nsamples = 3\nvalue = [1, 2]"] ;
110 -> 112 ;
113 [label="gini = 0.0\nsamples = 1\nvalue = [1, 0]"] ;
112 -> 113 ;
114 [label="gini = 0.0\nsamples = 2\nvalue = [0, 2]"] ;
112 -> 114 ;
115 [label="X[5] <= 19.263\ngini = 0.375\nsamples = 8\nvalue = [6, 2]"] ;
105 -> 115 ;
116 [label="X[2] <= 24.5\ngini = 0.245\nsamples = 7\nvalue = [6, 1]"] ;
115 -> 116 ;
117 [label="gini = 0.0\nsamples = 1\nvalue = [0, 1]"] ;
116 -> 117 ;
118 [label="gini = 0.0\nsamples = 6\nvalue = [6, 0]"] ;
116 -> 118 ;
119 [label="gini = 0.0\nsamples = 1\nvalue = [0, 1]"] ;
115 -> 119 ;
120 [label="X[5] <= 20.167\ngini = 0.278\nsamples = 6\nvalue = [1, 5]"] ;
78 -> 120 ;
121 [label="gini = 0.0\nsamples = 5\nvalue = [0, 5]"] ;
120 -> 121 ;
122 [label="gini = 0.0\nsamples = 1\nvalue = [1, 0]"] ;
120 -> 122 ;
123 [label="gini = 0.0\nsamples = 3\nvalue = [0, 3]"] ;
77 -> 123 ;
124 [label="X[2] <= 55.0\ngini = 0.245\nsamples = 7\nvalue = [6, 1]"] ;
76 -> 124 ;
125 [label="gini = 0.0\nsamples = 6\nvalue = [6, 0]"] ;
124 -> 125 ;
126 [label="gini = 0.0\nsamples = 1\nvalue = [0, 1]"] ;
124 -> 126 ;
127 [label="X[4] <= 0.5\ngini = 0.198\nsamples = 27\nvalue = [24, 3]"] ;
45 -> 127 ;
128 [label="gini = 0.0\nsamples = 1\nvalue = [0, 1]"] ;
127 -> 128 ;
129 [label="X[5] <= 31.331\ngini = 0.142\nsamples = 26\nvalue = [24, 2]"] ;
127 -> 129 ;
130 [label="gini = 0.0\nsamples = 15\nvalue = [15, 0]"] ;
129 -> 130 ;
131 [label="X[5] <= 32.881\ngini = 0.298\nsamples = 11\nvalue = [9, 2]"] ;
129 -> 131 ;
132 [label="gini = 0.0\nsamples = 2\nvalue = [0, 2]"] ;
131 -> 132 ;
133 [label="gini = 0.0\nsamples = 9\nvalue = [9, 0]"] ;
131 -> 133 ;
134 [label="X[6] <= 145.0\ngini = 0.306\nsamples = 577\nvalue = [468, 109]"] ;
0 -> 134 [labeldistance=2.5, labelangle=-45, headlabel="False"] ;
135 [label="X[5] <= 7.9\ngini = 0.489\nsamples = 106\nvalue = [61, 45]"] ;
134 -> 135 ;
136 [label="gini = 0.0\nsamples = 8\nvalue = [8, 0]"] ;
135 -> 136 ;
137 [label="X[2] <= 43.0\ngini = 0.497\nsamples = 98\nvalue = [53, 45]"] ;
135 -> 137 ;
138 [label="X[6] <= 101.0\ngini = 0.486\nsamples = 60\nvalue = [25, 35]"] ;
137 -> 138 ;
139 [label="X[6] <= 7.0\ngini = 0.498\nsamples = 43\nvalue = [23, 20]"] ;
138 -> 139 ;
140 [label="gini = 0.0\nsamples = 4\nvalue = [4, 0]"] ;
139 -> 140 ;
141 [label="X[6] <= 35.0\ngini = 0.5\nsamples = 39\nvalue = [19, 20]"] ;
139 -> 141 ;
142 [label="X[2] <= -3.0\ngini = 0.198\nsamples = 9\nvalue = [1, 8]"] ;
141 -> 142 ;
143 [label="gini = 0.0\nsamples = 1\nvalue = [1, 0]"] ;
142 -> 143 ;
144 [label="gini = 0.0\nsamples = 8\nvalue = [0, 8]"] ;
142 -> 144 ;
145 [label="X[5] <= 152.506\ngini = 0.48\nsamples = 30\nvalue = [18, 12]"] ;
141 -> 145 ;
146 [label="X[5] <= 109.892\ngini = 0.499\nsamples = 25\nvalue = [13, 12]"] ;
145 -> 146 ;
147 [label="X[6] <= 67.5\ngini = 0.472\nsamples = 21\nvalue = [13, 8]"] ;
146 -> 147 ;
148 [label="X[2] <= 27.5\ngini = 0.298\nsamples = 11\nvalue = [9, 2]"] ;
147 -> 148 ;
149 [label="X[5] <= 32.75\ngini = 0.48\nsamples = 5\nvalue = [3, 2]"] ;
148 -> 149 ;
150 [label="X[5] <= 28.275\ngini = 0.444\nsamples = 3\nvalue = [1, 2]"] ;
149 -> 150 ;
151 [label="gini = 0.0\nsamples = 1\nvalue = [1, 0]"] ;
150 -> 151 ;
152 [label="gini = 0.0\nsamples = 2\nvalue = [0, 2]"] ;
150 -> 152 ;
153 [label="gini = 0.0\nsamples = 2\nvalue = [2, 0]"] ;
149 -> 153 ;
154 [label="gini = 0.0\nsamples = 6\nvalue = [6, 0]"] ;
148 -> 154 ;
155 [label="X[6] <= 96.5\ngini = 0.48\nsamples = 10\nvalue = [4, 6]"] ;
147 -> 155 ;
156 [label="X[5] <= 19.712\ngini = 0.375\nsamples = 8\nvalue = [2, 6]"] ;
155 -> 156 ;
157 [label="gini = 0.0\nsamples = 1\nvalue = [1, 0]"] ;
156 -> 157 ;
158 [label="X[5] <= 99.45\ngini = 0.245\nsamples = 7\nvalue = [1, 6]"] ;
156 -> 158 ;
159 [label="gini = 0.0\nsamples = 6\nvalue = [0, 6]"] ;
158 -> 159 ;
160 [label="gini = 0.0\nsamples = 1\nvalue = [1, 0]"] ;
158 -> 160 ;
161 [label="gini = 0.0\nsamples = 2\nvalue = [2, 0]"] ;
155 -> 161 ;
162 [label="gini = 0.0\nsamples = 4\nvalue = [0, 4]"] ;
146 -> 162 ;
163 [label="gini = 0.0\nsamples = 5\nvalue = [5, 0]"] ;
145 -> 163 ;
164 [label="X[4] <= 1.5\ngini = 0.208\nsamples = 17\nvalue = [2, 15]"] ;
138 -> 164 ;
165 [label="X[6] <= 113.5\ngini = 0.117\nsamples = 16\nvalue = [1, 15]"] ;
164 -> 165 ;
166 [label="X[6] <= 111.5\ngini = 0.32\nsamples = 5\nvalue = [1, 4]"] ;
165 -> 166 ;
167 [label="gini = 0.0\nsamples = 4\nvalue = [0, 4]"] ;
166 -> 167 ;
168 [label="gini = 0.0\nsamples = 1\nvalue = [1, 0]"] ;
166 -> 168 ;
169 [label="gini = 0.0\nsamples = 11\nvalue = [0, 11]"] ;
165 -> 169 ;
170 [label="gini = 0.0\nsamples = 1\nvalue = [1, 0]"] ;
164 -> 170 ;
171 [label="X[6] <= 9.5\ngini = 0.388\nsamples = 38\nvalue = [28, 10]"] ;
137 -> 171 ;
172 [label="gini = 0.0\nsamples = 3\nvalue = [0, 3]"] ;
171 -> 172 ;
173 [label="X[2] <= 47.5\ngini = 0.32\nsamples = 35\nvalue = [28, 7]"] ;
171 -> 173 ;
174 [label="gini = 0.0\nsamples = 10\nvalue = [10, 0]"] ;
173 -> 174 ;
175 [label="X[2] <= 48.5\ngini = 0.403\nsamples = 25\nvalue = [18, 7]"] ;
173 -> 175 ;
176 [label="gini = 0.0\nsamples = 3\nvalue = [0, 3]"] ;
175 -> 176 ;
177 [label="X[2] <= 53.0\ngini = 0.298\nsamples = 22\nvalue = [18, 4]"] ;
175 -> 177 ;
178 [label="X[5] <= 43.2\ngini = 0.49\nsamples = 7\nvalue = [4, 3]"] ;
177 -> 178 ;
179 [label="gini = 0.0\nsamples = 2\nvalue = [0, 2]"] ;
178 -> 179 ;
180 [label="X[2] <= 49.5\ngini = 0.32\nsamples = 5\nvalue = [4, 1]"] ;
178 -> 180 ;
181 [label="X[4] <= 0.5\ngini = 0.5\nsamples = 2\nvalue = [1, 1]"] ;
180 -> 181 ;
182 [label="gini = 0.0\nsamples = 1\nvalue = [0, 1]"] ;
181 -> 182 ;
183 [label="gini = 0.0\nsamples = 1\nvalue = [1, 0]"] ;
181 -> 183 ;
184 [label="gini = 0.0\nsamples = 3\nvalue = [3, 0]"] ;
180 -> 184 ;
185 [label="X[3] <= 0.5\ngini = 0.124\nsamples = 15\nvalue = [14, 1]"] ;
177 -> 185 ;
186 [label="gini = 0.0\nsamples = 12\nvalue = [12, 0]"] ;
185 -> 186 ;
187 [label="X[7] <= 1.5\ngini = 0.444\nsamples = 3\nvalue = [2, 1]"] ;
185 -> 187 ;
188 [label="gini = 0.0\nsamples = 1\nvalue = [0, 1]"] ;
187 -> 188 ;
189 [label="gini = 0.0\nsamples = 2\nvalue = [2, 0]"] ;
187 -> 189 ;
190 [label="X[4] <= 0.5\ngini = 0.235\nsamples = 471\nvalue = [407, 64]"] ;
134 -> 190 ;
191 [label="X[5] <= 26.275\ngini = 0.209\nsamples = 405\nvalue = [357, 48]"] ;
190 -> 191 ;
192 [label="X[2] <= 32.5\ngini = 0.181\nsamples = 367\nvalue = [330, 37]"] ;
191 -> 192 ;
193 [label="X[2] <= 30.75\ngini = 0.204\nsamples = 278\nvalue = [246, 32]"] ;
192 -> 193 ;
194 [label="X[7] <= 1.0\ngini = 0.184\nsamples = 263\nvalue = [236, 27]"] ;
193 -> 194 ;
195 [label="X[2] <= 11.5\ngini = 0.32\nsamples = 35\nvalue = [28, 7]"] ;
194 -> 195 ;
196 [label="X[0] <= 2.5\ngini = 0.188\nsamples = 19\nvalue = [17, 2]"] ;
195 -> 196 ;
197 [label="X[5] <= 14.456\ngini = 0.5\nsamples = 2\nvalue = [1, 1]"] ;
196 -> 197 ;
198 [label="gini = 0.0\nsamples = 1\nvalue = [0, 1]"] ;
197 -> 198 ;
199 [label="gini = 0.0\nsamples = 1\nvalue = [1, 0]"] ;
197 -> 199 ;
200 [label="X[5] <= 7.562\ngini = 0.111\nsamples = 17\nvalue = [16, 1]"] ;
196 -> 200 ;
201 [label="X[5] <= 7.227\ngini = 0.165\nsamples = 11\nvalue = [10, 1]"] ;
200 -> 201 ;
202 [label="gini = 0.0\nsamples = 5\nvalue = [5, 0]"] ;
201 -> 202 ;
203 [label="gini = 0.278\nsamples = 6\nvalue = [5, 1]"] ;
201 -> 203 ;
204 [label="gini = 0.0\nsamples = 6\nvalue = [6, 0]"] ;
200 -> 204 ;
205 [label="X[2] <= 22.5\ngini = 0.43\nsamples = 16\nvalue = [11, 5]"] ;
195 -> 205 ;
206 [label="X[5] <= 5.619\ngini = 0.48\nsamples = 5\nvalue = [2, 3]"] ;
205 -> 206 ;
207 [label="gini = 0.0\nsamples = 1\nvalue = [1, 0]"] ;
206 -> 207 ;
208 [label="X[2] <= 21.0\ngini = 0.375\nsamples = 4\nvalue = [1, 3]"] ;
206 -> 208 ;
209 [label="gini = 0.0\nsamples = 2\nvalue = [0, 2]"] ;
208 -> 209 ;
210 [label="X[5] <= 7.227\ngini = 0.5\nsamples = 2\nvalue = [1, 1]"] ;
208 -> 210 ;
211 [label="gini = 0.0\nsamples = 1\nvalue = [0, 1]"] ;
210 -> 211 ;
212 [label="gini = 0.0\nsamples = 1\nvalue = [1, 0]"] ;
210 -> 212 ;
213 [label="X[5] <= 7.562\ngini = 0.298\nsamples = 11\nvalue = [9, 2]"] ;
205 -> 213 ;
214 [label="gini = 0.0\nsamples = 5\nvalue = [5, 0]"] ;
213 -> 214 ;
215 [label="X[3] <= 0.5\ngini = 0.444\nsamples = 6\nvalue = [4, 2]"] ;
213 -> 215 ;
216 [label="X[2] <= 24.5\ngini = 0.444\nsamples = 3\nvalue = [1, 2]"] ;
215 -> 216 ;
217 [label="gini = 0.0\nsamples = 1\nvalue = [1, 0]"] ;
216 -> 217 ;
218 [label="gini = 0.0\nsamples = 2\nvalue = [0, 2]"] ;
216 -> 218 ;
219 [label="gini = 0.0\nsamples = 3\nvalue = [3, 0]"] ;
215 -> 219 ;
220 [label="X[2] <= 26.5\ngini = 0.16\nsamples = 228\nvalue = [208, 20]"] ;
194 -> 220 ;
221 [label="X[3] <= 1.5\ngini = 0.138\nsamples = 188\nvalue = [174, 14]"] ;
220 -> 221 ;
222 [label="X[5] <= 8.135\ngini = 0.131\nsamples = 184\nvalue = [171, 13]"] ;
221 -> 222 ;
223 [label="X[5] <= 8.081\ngini = 0.159\nsamples = 126\nvalue = [115, 11]"] ;
222 -> 223 ;
224 [label="X[3] <= 0.5\ngini = 0.147\nsamples = 125\nvalue = [115, 10]"] ;
223 -> 224 ;
225 [label="X[2] <= 3.0\ngini = 0.127\nsamples = 117\nvalue = [109, 8]"] ;
224 -> 225 ;
226 [label="X[5] <= 7.802\ngini = 0.069\nsamples = 56\nvalue = [54, 2]"] ;
225 -> 226 ;
227 [label="X[5] <= 7.762\ngini = 0.124\nsamples = 30\nvalue = [28, 2]"] ;
226 -> 227 ;
228 [label="X[5] <= 7.744\ngini = 0.069\nsamples = 28\nvalue = [27, 1]"] ;
227 -> 228 ;
229 [label="gini = 0.0\nsamples = 19\nvalue = [19, 0]"] ;
228 -> 229 ;
230 [label="gini = 0.198\nsamples = 9\nvalue = [8, 1]"] ;
228 -> 230 ;
231 [label="gini = 0.5\nsamples = 2\nvalue = [1, 1]"] ;
227 -> 231 ;
232 [label="gini = 0.0\nsamples = 26\nvalue = [26, 0]"] ;
226 -> 232 ;
233 [label="X[5] <= 3.375\ngini = 0.177\nsamples = 61\nvalue = [55, 6]"] ;
225 -> 233 ;
234 [label="X[2] <= 22.0\ngini = 0.5\nsamples = 2\nvalue = [1, 1]"] ;
233 -> 234 ;
235 [label="gini = 0.0\nsamples = 1\nvalue = [1, 0]"] ;
234 -> 235 ;
236 [label="gini = 0.0\nsamples = 1\nvalue = [0, 1]"] ;
234 -> 236 ;
237 [label="X[5] <= 7.988\ngini = 0.155\nsamples = 59\nvalue = [54, 5]"] ;
233 -> 237 ;
238 [label="X[5] <= 7.196\ngini = 0.083\nsamples = 46\nvalue = [44, 2]"] ;
237 -> 238 ;
239 [label="X[5] <= 7.133\ngini = 0.219\nsamples = 8\nvalue = [7, 1]"] ;
238 -> 239 ;
240 [label="gini = 0.0\nsamples = 7\nvalue = [7, 0]"] ;
239 -> 240 ;
241 [label="gini = 0.0\nsamples = 1\nvalue = [0, 1]"] ;
239 -> 241 ;
242 [label="X[5] <= 7.798\ngini = 0.051\nsamples = 38\nvalue = [37, 1]"] ;
238 -> 242 ;
243 [label="X[5] <= 7.785\ngini = 0.1\nsamples = 19\nvalue = [18, 1]"] ;
242 -> 243 ;
244 [label="gini = 0.0\nsamples = 15\nvalue = [15, 0]"] ;
243 -> 244 ;
245 [label="X[2] <= 21.5\ngini = 0.375\nsamples = 4\nvalue = [3, 1]"] ;
243 -> 245 ;
246 [label="X[2] <= 19.5\ngini = 0.5\nsamples = 2\nvalue = [1, 1]"] ;
245 -> 246 ;
247 [label="gini = 0.0\nsamples = 1\nvalue = [1, 0]"] ;
246 -> 247 ;
248 [label="gini = 0.0\nsamples = 1\nvalue = [0, 1]"] ;
246 -> 248 ;
249 [label="gini = 0.0\nsamples = 2\nvalue = [2, 0]"] ;
245 -> 249 ;
250 [label="gini = 0.0\nsamples = 19\nvalue = [19, 0]"] ;
242 -> 250 ;
251 [label="X[2] <= 19.5\ngini = 0.355\nsamples = 13\nvalue = [10, 3]"] ;
237 -> 251 ;
252 [label="X[2] <= 17.0\ngini = 0.48\nsamples = 5\nvalue = [2, 3]"] ;
251 -> 252 ;
253 [label="gini = 0.5\nsamples = 2\nvalue = [1, 1]"] ;
252 -> 253 ;
254 [label="X[2] <= 18.5\ngini = 0.444\nsamples = 3\nvalue = [1, 2]"] ;
252 -> 254 ;
255 [label="gini = 0.0\nsamples = 1\nvalue = [0, 1]"] ;
254 -> 255 ;
256 [label="gini = 0.5\nsamples = 2\nvalue = [1, 1]"] ;
254 -> 256 ;
257 [label="gini = 0.0\nsamples = 8\nvalue = [8, 0]"] ;
251 -> 257 ;
258 [label="X[5] <= 7.89\ngini = 0.375\nsamples = 8\nvalue = [6, 2]"] ;
224 -> 258 ;
259 [label="X[2] <= 23.5\ngini = 0.245\nsamples = 7\nvalue = [6, 1]"] ;
258 -> 259 ;
260 [label="gini = 0.0\nsamples = 4\nvalue = [4, 0]"] ;
259 -> 260 ;
261 [label="X[5] <= 7.815\ngini = 0.444\nsamples = 3\nvalue = [2, 1]"] ;
259 -> 261 ;
262 [label="gini = 0.5\nsamples = 2\nvalue = [1, 1]"] ;
261 -> 262 ;
263 [label="gini = 0.0\nsamples = 1\nvalue = [1, 0]"] ;
261 -> 263 ;
264 [label="gini = 0.0\nsamples = 1\nvalue = [0, 1]"] ;
258 -> 264 ;
265 [label="gini = 0.0\nsamples = 1\nvalue = [0, 1]"] ;
223 -> 265 ;
266 [label="X[0] <= 2.5\ngini = 0.067\nsamples = 58\nvalue = [56, 2]"] ;
222 -> 266 ;
267 [label="X[2] <= 3.0\ngini = 0.165\nsamples = 22\nvalue = [20, 2]"] ;
266 -> 267 ;
268 [label="X[0] <= 1.5\ngini = 0.5\nsamples = 2\nvalue = [1, 1]"] ;
267 -> 268 ;
269 [label="gini = 0.0\nsamples = 1\nvalue = [1, 0]"] ;
268 -> 269 ;
270 [label="gini = 0.0\nsamples = 1\nvalue = [0, 1]"] ;
268 -> 270 ;
271 [label="X[5] <= 11.0\ngini = 0.095\nsamples = 20\nvalue = [19, 1]"] ;
267 -> 271 ;
272 [label="X[2] <= 21.0\ngini = 0.278\nsamples = 6\nvalue = [5, 1]"] ;
271 -> 272 ;
273 [label="X[2] <= 17.5\ngini = 0.444\nsamples = 3\nvalue = [2, 1]"] ;
272 -> 273 ;
274 [label="gini = 0.0\nsamples = 1\nvalue = [1, 0]"] ;
273 -> 274 ;
275 [label="gini = 0.5\nsamples = 2\nvalue = [1, 1]"] ;
273 -> 275 ;
276 [label="gini = 0.0\nsamples = 3\nvalue = [3, 0]"] ;
272 -> 276 ;
277 [label="gini = 0.0\nsamples = 14\nvalue = [14, 0]"] ;
271 -> 277 ;
278 [label="gini = 0.0\nsamples = 36\nvalue = [36, 0]"] ;
266 -> 278 ;
279 [label="X[2] <= 3.0\ngini = 0.375\nsamples = 4\nvalue = [3, 1]"] ;
221 -> 279 ;
280 [label="gini = 0.0\nsamples = 1\nvalue = [0, 1]"] ;
279 -> 280 ;
281 [label="gini = 0.0\nsamples = 3\nvalue = [3, 0]"] ;
279 -> 281 ;
282 [label="X[5] <= 7.01\ngini = 0.255\nsamples = 40\nvalue = [34, 6]"] ;
220 -> 282 ;
283 [label="gini = 0.0\nsamples = 1\nvalue = [0, 1]"] ;
282 -> 283 ;
284 [label="X[7] <= 2.5\ngini = 0.224\nsamples = 39\nvalue = [34, 5]"] ;
282 -> 284 ;
285 [label="gini = 0.0\nsamples = 1\nvalue = [0, 1]"] ;
284 -> 285 ;
286 [label="X[2] <= 27.5\ngini = 0.188\nsamples = 38\nvalue = [34, 4]"] ;
284 -> 286 ;
287 [label="X[0] <= 2.5\ngini = 0.444\nsamples = 6\nvalue = [4, 2]"] ;
286 -> 287 ;
288 [label="gini = 0.0\nsamples = 3\nvalue = [3, 0]"] ;
287 -> 288 ;
289 [label="X[5] <= 7.846\ngini = 0.444\nsamples = 3\nvalue = [1, 2]"] ;
287 -> 289 ;
290 [label="gini = 0.0\nsamples = 1\nvalue = [0, 1]"] ;
289 -> 290 ;
291 [label="X[5] <= 8.279\ngini = 0.5\nsamples = 2\nvalue = [1, 1]"] ;
289 -> 291 ;
292 [label="gini = 0.0\nsamples = 1\nvalue = [1, 0]"] ;
291 -> 292 ;
293 [label="gini = 0.0\nsamples = 1\nvalue = [0, 1]"] ;
291 -> 293 ;
294 [label="X[5] <= 9.492\ngini = 0.117\nsamples = 32\nvalue = [30, 2]"] ;
286 -> 294 ;
295 [label="gini = 0.0\nsamples = 15\nvalue = [15, 0]"] ;
294 -> 295 ;
296 [label="X[5] <= 10.0\ngini = 0.208\nsamples = 17\nvalue = [15, 2]"] ;
294 -> 296 ;
297 [label="X[2] <= 28.5\ngini = 0.5\nsamples = 4\nvalue = [2, 2]"] ;
296 -> 297 ;
298 [label="gini = 0.0\nsamples = 2\nvalue = [2, 0]"] ;
297 -> 298 ;
299 [label="gini = 0.0\nsamples = 2\nvalue = [0, 2]"] ;
297 -> 299 ;
300 [label="gini = 0.0\nsamples = 13\nvalue = [13, 0]"] ;
296 -> 300 ;
301 [label="X[5] <= 20.925\ngini = 0.444\nsamples = 15\nvalue = [10, 5]"] ;
193 -> 301 ;
302 [label="X[5] <= 7.815\ngini = 0.408\nsamples = 14\nvalue = [10, 4]"] ;
301 -> 302 ;
303 [label="gini = 0.0\nsamples = 3\nvalue = [3, 0]"] ;
302 -> 303 ;
304 [label="X[5] <= 7.875\ngini = 0.463\nsamples = 11\nvalue = [7, 4]"] ;
302 -> 304 ;
305 [label="gini = 0.0\nsamples = 1\nvalue = [0, 1]"] ;
304 -> 305 ;
306 [label="X[2] <= 31.5\ngini = 0.42\nsamples = 10\nvalue = [7, 3]"] ;
304 -> 306 ;
307 [label="X[5] <= 9.212\ngini = 0.444\nsamples = 3\nvalue = [1, 2]"] ;
306 -> 307 ;
308 [label="gini = 0.0\nsamples = 1\nvalue = [0, 1]"] ;
307 -> 308 ;
309 [label="X[5] <= 11.75\ngini = 0.5\nsamples = 2\nvalue = [1, 1]"] ;
307 -> 309 ;
310 [label="gini = 0.0\nsamples = 1\nvalue = [1, 0]"] ;
309 -> 310 ;
311 [label="gini = 0.0\nsamples = 1\nvalue = [0, 1]"] ;
309 -> 311 ;
312 [label="X[5] <= 8.144\ngini = 0.245\nsamples = 7\nvalue = [6, 1]"] ;
306 -> 312 ;
313 [label="X[5] <= 7.91\ngini = 0.375\nsamples = 4\nvalue = [3, 1]"] ;
312 -> 313 ;
314 [label="gini = 0.0\nsamples = 1\nvalue = [1, 0]"] ;
313 -> 314 ;
315 [label="gini = 0.444\nsamples = 3\nvalue = [2, 1]"] ;
313 -> 315 ;
316 [label="gini = 0.0\nsamples = 3\nvalue = [3, 0]"] ;
312 -> 316 ;
317 [label="gini = 0.0\nsamples = 1\nvalue = [0, 1]"] ;
301 -> 317 ;
318 [label="X[2] <= 38.5\ngini = 0.106\nsamples = 89\nvalue = [84, 5]"] ;
192 -> 318 ;
319 [label="gini = 0.0\nsamples = 35\nvalue = [35, 0]"] ;
318 -> 319 ;
320 [label="X[2] <= 45.25\ngini = 0.168\nsamples = 54\nvalue = [49, 5]"] ;
318 -> 320 ;
321 [label="X[5] <= 7.91\ngini = 0.287\nsamples = 23\nvalue = [19, 4]"] ;
320 -> 321 ;
322 [label="gini = 0.0\nsamples = 7\nvalue = [7, 0]"] ;
321 -> 322 ;
323 [label="X[5] <= 7.988\ngini = 0.375\nsamples = 16\nvalue = [12, 4]"] ;
321 -> 323 ;
324 [label="X[2] <= 41.5\ngini = 0.444\nsamples = 3\nvalue = [1, 2]"] ;
323 -> 324 ;
325 [label="gini = 0.5\nsamples = 2\nvalue = [1, 1]"] ;
324 -> 325 ;
326 [label="gini = 0.0\nsamples = 1\nvalue = [0, 1]"] ;
324 -> 326 ;
327 [label="X[2] <= 44.5\ngini = 0.26\nsamples = 13\nvalue = [11, 2]"] ;
323 -> 327 ;
328 [label="X[0] <= 2.5\ngini = 0.153\nsamples = 12\nvalue = [11, 1]"] ;
327 -> 328 ;
329 [label="X[2] <= 40.5\ngini = 0.278\nsamples = 6\nvalue = [5, 1]"] ;
328 -> 329 ;
330 [label="gini = 0.0\nsamples = 3\nvalue = [3, 0]"] ;
329 -> 330 ;
331 [label="X[2] <= 43.0\ngini = 0.444\nsamples = 3\nvalue = [2, 1]"] ;
329 -> 331 ;
332 [label="gini = 0.5\nsamples = 2\nvalue = [1, 1]"] ;
331 -> 332 ;
333 [label="gini = 0.0\nsamples = 1\nvalue = [1, 0]"] ;
331 -> 333 ;
334 [label="gini = 0.0\nsamples = 6\nvalue = [6, 0]"] ;
328 -> 334 ;
335 [label="gini = 0.0\nsamples = 1\nvalue = [0, 1]"] ;
327 -> 335 ;
336 [label="X[2] <= 61.5\ngini = 0.062\nsamples = 31\nvalue = [30, 1]"] ;
320 -> 336 ;
337 [label="gini = 0.0\nsamples = 24\nvalue = [24, 0]"] ;
336 -> 337 ;
338 [label="X[2] <= 63.0\ngini = 0.245\nsamples = 7\nvalue = [6, 1]"] ;
336 -> 338 ;
339 [label="gini = 0.0\nsamples = 1\nvalue = [0, 1]"] ;
338 -> 339 ;
340 [label="gini = 0.0\nsamples = 6\nvalue = [6, 0]"] ;
338 -> 340 ;
341 [label="X[0] <= 2.5\ngini = 0.411\nsamples = 38\nvalue = [27, 11]"] ;
191 -> 341 ;
342 [label="X[5] <= 26.775\ngini = 0.312\nsamples = 31\nvalue = [25, 6]"] ;
341 -> 342 ;
343 [label="X[2] <= 50.5\ngini = 0.49\nsamples = 7\nvalue = [3, 4]"] ;
342 -> 343 ;
344 [label="gini = 0.0\nsamples = 4\nvalue = [0, 4]"] ;
343 -> 344 ;
345 [label="gini = 0.0\nsamples = 3\nvalue = [3, 0]"] ;
343 -> 345 ;
346 [label="X[2] <= 47.5\ngini = 0.153\nsamples = 24\nvalue = [22, 2]"] ;
342 -> 346 ;
347 [label="X[5] <= 30.598\ngini = 0.087\nsamples = 22\nvalue = [21, 1]"] ;
346 -> 347 ;
348 [label="X[5] <= 30.285\ngini = 0.245\nsamples = 7\nvalue = [6, 1]"] ;
347 -> 348 ;
349 [label="gini = 0.0\nsamples = 6\nvalue = [6, 0]"] ;
348 -> 349 ;
350 [label="gini = 0.0\nsamples = 1\nvalue = [0, 1]"] ;
348 -> 350 ;
351 [label="gini = 0.0\nsamples = 15\nvalue = [15, 0]"] ;
347 -> 351 ;
352 [label="X[7] <= 1.5\ngini = 0.5\nsamples = 2\nvalue = [1, 1]"] ;
346 -> 352 ;
353 [label="gini = 0.0\nsamples = 1\nvalue = [1, 0]"] ;
352 -> 353 ;
354 [label="gini = 0.0\nsamples = 1\nvalue = [0, 1]"] ;
352 -> 354 ;
355 [label="X[2] <= 30.0\ngini = 0.408\nsamples = 7\nvalue = [2, 5]"] ;
341 -> 355 ;
356 [label="X[2] <= 27.0\ngini = 0.48\nsamples = 5\nvalue = [2, 3]"] ;
355 -> 356 ;
357 [label="X[2] <= 8.0\ngini = 0.375\nsamples = 4\nvalue = [1, 3]"] ;
356 -> 357 ;
358 [label="gini = 0.444\nsamples = 3\nvalue = [1, 2]"] ;
357 -> 358 ;
359 [label="gini = 0.0\nsamples = 1\nvalue = [0, 1]"] ;
357 -> 359 ;
360 [label="gini = 0.0\nsamples = 1\nvalue = [1, 0]"] ;
356 -> 360 ;
361 [label="gini = 0.0\nsamples = 2\nvalue = [0, 2]"] ;
355 -> 361 ;
362 [label="X[2] <= 9.5\ngini = 0.367\nsamples = 66\nvalue = [50, 16]"] ;
190 -> 362 ;
363 [label="X[3] <= 2.0\ngini = 0.493\nsamples = 34\nvalue = [19, 15]"] ;
362 -> 363 ;
364 [label="X[2] <= -4.79\ngini = 0.124\nsamples = 15\nvalue = [1, 14]"] ;
363 -> 364 ;
365 [label="X[5] <= 19.348\ngini = 0.444\nsamples = 3\nvalue = [1, 2]"] ;
364 -> 365 ;
366 [label="gini = 0.0\nsamples = 2\nvalue = [0, 2]"] ;
365 -> 366 ;
367 [label="gini = 0.0\nsamples = 1\nvalue = [1, 0]"] ;
365 -> 367 ;
368 [label="gini = 0.0\nsamples = 12\nvalue = [0, 12]"] ;
364 -> 368 ;
369 [label="X[2] <= 2.5\ngini = 0.1\nsamples = 19\nvalue = [18, 1]"] ;
363 -> 369 ;
370 [label="gini = 0.0\nsamples = 10\nvalue = [10, 0]"] ;
369 -> 370 ;
371 [label="X[2] <= 3.5\ngini = 0.198\nsamples = 9\nvalue = [8, 1]"] ;
369 -> 371 ;
372 [label="gini = 0.0\nsamples = 1\nvalue = [0, 1]"] ;
371 -> 372 ;
373 [label="gini = 0.0\nsamples = 8\nvalue = [8, 0]"] ;
371 -> 373 ;
374 [label="X[7] <= 1.0\ngini = 0.061\nsamples = 32\nvalue = [31, 1]"] ;
362 -> 374 ;
375 [label="X[5] <= 26.373\ngini = 0.278\nsamples = 6\nvalue = [5, 1]"] ;
374 -> 375 ;
376 [label="X[2] <= 18.5\ngini = 0.444\nsamples = 3\nvalue = [2, 1]"] ;
375 -> 376 ;
377 [label="gini = 0.0\nsamples = 2\nvalue = [2, 0]"] ;
376 -> 377 ;
378 [label="gini = 0.0\nsamples = 1\nvalue = [0, 1]"] ;
376 -> 378 ;
379 [label="gini = 0.0\nsamples = 3\nvalue = [3, 0]"] ;
375 -> 379 ;
380 [label="gini = 0.0\nsamples = 26\nvalue = [26, 0]"] ;
374 -> 380 ;
}
